digraph Tree {
node [shape=box, style="filled", color="black", fontname="helvetica"] ;
edge [fontname="helvetica"] ;
0 [label="petal width (cm) <= 0.8\ngini = 0.665\nsamples = 112\nvalue = [38, 40, 34]\nclass = versicolor", fillcolor="#fafefc"] ;
1 [label="gini = 0.0\nsamples = 38\nvalue = [38, 0, 0]\nclass = setosa", fillcolor="#e58139"] ;
0 -> 1 [labeldistance=2.5, labelangle=45, headlabel="True"] ;
2 [label="petal length (cm) <= 4.75\ngini = 0.497\nsamples = 74\nvalue = [0, 40, 34]\nclass = versicolor", fillcolor="#e1fbec"] ;
0 -> 2 [labeldistance=2.5, labelangle=-45, headlabel="False"] ;
3 [label="gini = 0.0\nsamples = 36\nvalue = [0, 36, 0]\nclass = versicolor", fillcolor="#39e581"] ;
2 -> 3 ;
4 [label="petal width (cm) <= 1.75\ngini = 0.188\nsamples = 38\nvalue = [0, 4, 34]\nclass = virginica", fillcolor="#9050e8"] ;
2 -> 4 ;
5 [label="sepal width (cm) <= 2.65\ngini = 0.49\nsamples = 7\nvalue = [0, 3, 4]\nclass = virginica", fillcolor="#e0cef8"] ;
4 -> 5 ;
6 [label="gini = 0.0\nsamples = 2\nvalue = [0, 0, 2]\nclass = virginica", fillcolor="#8139e5"] ;
5 -> 6 ;
7 [label="petal length (cm) <= 5.05\ngini = 0.48\nsamples = 5\nvalue = [0, 3, 2]\nclass = versicolor", fillcolor="#bdf6d5"] ;
5 -> 7 ;
8 [label="gini = 0.0\nsamples = 2\nvalue = [0, 2, 0]\nclass = versicolor", fillcolor="#39e581"] ;
7 -> 8 ;
9 [label="gini = 0.444\nsamples = 3\nvalue = [0, 1, 2]\nclass = virginica", fillcolor="#c09cf2"] ;
7 -> 9 ;
10 [label="petal length (cm) <= 4.85\ngini = 0.062\nsamples = 31\nvalue = [0, 1, 30]\nclass = virginica", fillcolor="#8540e6"] ;
4 -> 10 ;
11 [label="gini = 0.5\nsamples = 2\nvalue = [0, 1, 1]\nclass = versicolor", fillcolor="#ffffff"] ;
10 -> 11 ;
12 [label="gini = 0.0\nsamples = 29\nvalue = [0, 0, 29]\nclass = virginica", fillcolor="#8139e5"] ;
10 -> 12 ;
}